digraph Tree {
node [shape=box, style="filled", color="black"] ;
0 [label="Height <= 12.637\ngini = 0.786\nsamples = 127\nvalue = [28, 9, 45, 14, 16, 9, 6]\nclass = Whitefish", fillcolor="#ddfbe0"] ;
1 [label="Width <= 1.401\ngini = 0.746\nsamples = 101\nvalue = [3, 9, 44, 14, 16, 9, 6]\nclass = Whitefish", fillcolor="#bef6c4"] ;
0 -> 1 [labeldistance=2.5, labelangle=45, headlabel="True"] ;
2 [label="gini = 0.0\nsamples = 8\nvalue = [0, 0, 0, 0, 0, 8, 0]\nclass = Pike", fillcolor="#b139e5"] ;
1 -> 2 ;
3 [label="Length3 <= 39.7\ngini = 0.709\nsamples = 93\nvalue = [3, 9, 44, 14, 16, 1, 6]\nclass = Whitefish", fillcolor="#b7f6be"] ;
1 -> 3 ;
4 [label="Height <= 7.983\ngini = 0.673\nsamples = 73\nvalue = [3, 9, 37, 2, 16, 1, 5]\nclass = Whitefish", fillcolor="#b6f5bd"] ;
3 -> 4 ;
5 [label="Length3 <= 33.2\ngini = 0.54\nsamples = 49\nvalue = [0, 2, 30, 2, 14, 1, 0]\nclass = Whitefish", fillcolor="#a4f3ae"] ;
4 -> 5 ;
6 [label="Length1 <= 22.35\ngini = 0.502\nsamples = 47\nvalue = [0, 2, 30, 0, 14, 1, 0]\nclass = Whitefish", fillcolor="#9ff2a9"] ;
5 -> 6 ;
7 [label="Height <= 6.112\ngini = 0.555\nsamples = 38\nvalue = [0, 2, 21, 0, 14, 1, 0]\nclass = Whitefish", fillcolor="#c5f7cb"] ;
6 -> 7 ;
8 [label="Length3 <= 24.6\ngini = 0.405\nsamples = 23\nvalue = [0, 0, 17, 0, 5, 1, 0]\nclass = Whitefish", fillcolor="#7bee88"] ;
7 -> 8 ;
9 [label="Length2 <= 19.9\ngini = 0.368\nsamples = 22\nvalue = [0, 0, 17, 0, 4, 1, 0]\nclass = Whitefish", fillcolor="#70ec7e"] ;
8 -> 9 ;
10 [label="Length3 <= 21.0\ngini = 0.542\nsamples = 12\nvalue = [0, 0, 7, 0, 4, 1, 0]\nclass = Whitefish", fillcolor="#b5f5bc"] ;
9 -> 10 ;
11 [label="Width <= 2.882\ngini = 0.46\nsamples = 10\nvalue = [0, 0, 7, 0, 2, 1, 0]\nclass = Whitefish", fillcolor="#83ef90"] ;
10 -> 11 ;
12 [label="Length3 <= 16.1\ngini = 0.611\nsamples = 6\nvalue = [0, 0, 3, 0, 2, 1, 0]\nclass = Whitefish", fillcolor="#cef8d2"] ;
11 -> 12 ;
13 [label="Length3 <= 12.0\ngini = 0.444\nsamples = 3\nvalue = [0, 0, 2, 0, 0, 1, 0]\nclass = Whitefish", fillcolor="#9cf2a6"] ;
12 -> 13 ;
14 [label="gini = 0.0\nsamples = 1\nvalue = [0, 0, 1, 0, 0, 0, 0]\nclass = Whitefish", fillcolor="#39e54d"] ;
13 -> 14 ;
15 [label="Height <= 3.348\ngini = 0.5\nsamples = 2\nvalue = [0, 0, 1, 0, 0, 1, 0]\nclass = Whitefish", fillcolor="#ffffff"] ;
13 -> 15 ;
16 [label="gini = 0.0\nsamples = 1\nvalue = [0, 0, 0, 0, 0, 1, 0]\nclass = Pike", fillcolor="#b139e5"] ;
15 -> 16 ;
17 [label="gini = 0.0\nsamples = 1\nvalue = [0, 0, 1, 0, 0, 0, 0]\nclass = Whitefish", fillcolor="#39e54d"] ;
15 -> 17 ;
18 [label="Width <= 2.45\ngini = 0.444\nsamples = 3\nvalue = [0, 0, 1, 0, 2, 0, 0]\nclass = Perch", fillcolor="#9caaf2"] ;
12 -> 18 ;
19 [label="gini = 0.0\nsamples = 1\nvalue = [0, 0, 0, 0, 1, 0, 0]\nclass = Perch", fillcolor="#3956e5"] ;
18 -> 19 ;
20 [label="Length2 <= 17.2\ngini = 0.5\nsamples = 2\nvalue = [0, 0, 1, 0, 1, 0, 0]\nclass = Whitefish", fillcolor="#ffffff"] ;
18 -> 20 ;
21 [label="gini = 0.0\nsamples = 1\nvalue = [0, 0, 1, 0, 0, 0, 0]\nclass = Whitefish", fillcolor="#39e54d"] ;
20 -> 21 ;
22 [label="gini = 0.0\nsamples = 1\nvalue = [0, 0, 0, 0, 1, 0, 0]\nclass = Perch", fillcolor="#3956e5"] ;
20 -> 22 ;
23 [label="gini = 0.0\nsamples = 4\nvalue = [0, 0, 4, 0, 0, 0, 0]\nclass = Whitefish", fillcolor="#39e54d"] ;
11 -> 23 ;
24 [label="gini = 0.0\nsamples = 2\nvalue = [0, 0, 0, 0, 2, 0, 0]\nclass = Perch", fillcolor="#3956e5"] ;
10 -> 24 ;
25 [label="gini = 0.0\nsamples = 10\nvalue = [0, 0, 10, 0, 0, 0, 0]\nclass = Whitefish", fillcolor="#39e54d"] ;
9 -> 25 ;
26 [label="gini = 0.0\nsamples = 1\nvalue = [0, 0, 0, 0, 1, 0, 0]\nclass = Perch", fillcolor="#3956e5"] ;
8 -> 26 ;
27 [label="Width <= 2.81\ngini = 0.551\nsamples = 15\nvalue = [0, 2, 4, 0, 9, 0, 0]\nclass = Perch", fillcolor="#a5b2f3"] ;
7 -> 27 ;
28 [label="gini = 0.0\nsamples = 2\nvalue = [0, 2, 0, 0, 0, 0, 0]\nclass = Roach", fillcolor="#b7e539"] ;
27 -> 28 ;
29 [label="Width <= 3.762\ngini = 0.426\nsamples = 13\nvalue = [0, 0, 4, 0, 9, 0, 0]\nclass = Perch", fillcolor="#91a1f1"] ;
27 -> 29 ;
30 [label="Weight <= 147.5\ngini = 0.494\nsamples = 9\nvalue = [0, 0, 4, 0, 5, 0, 0]\nclass = Perch", fillcolor="#d7ddfa"] ;
29 -> 30 ;
31 [label="Weight <= 125.0\ngini = 0.278\nsamples = 6\nvalue = [0, 0, 1, 0, 5, 0, 0]\nclass = Perch", fillcolor="#6178ea"] ;
30 -> 31 ;
32 [label="gini = 0.0\nsamples = 3\nvalue = [0, 0, 0, 0, 3, 0, 0]\nclass = Perch", fillcolor="#3956e5"] ;
31 -> 32 ;
33 [label="Length2 <= 21.65\ngini = 0.444\nsamples = 3\nvalue = [0, 0, 1, 0, 2, 0, 0]\nclass = Perch", fillcolor="#9caaf2"] ;
31 -> 33 ;
34 [label="gini = 0.0\nsamples = 1\nvalue = [0, 0, 1, 0, 0, 0, 0]\nclass = Whitefish", fillcolor="#39e54d"] ;
33 -> 34 ;
35 [label="gini = 0.0\nsamples = 2\nvalue = [0, 0, 0, 0, 2, 0, 0]\nclass = Perch", fillcolor="#3956e5"] ;
33 -> 35 ;
36 [label="gini = 0.0\nsamples = 3\nvalue = [0, 0, 3, 0, 0, 0, 0]\nclass = Whitefish", fillcolor="#39e54d"] ;
30 -> 36 ;
37 [label="gini = 0.0\nsamples = 4\nvalue = [0, 0, 0, 0, 4, 0, 0]\nclass = Perch", fillcolor="#3956e5"] ;
29 -> 37 ;
38 [label="gini = 0.0\nsamples = 9\nvalue = [0, 0, 9, 0, 0, 0, 0]\nclass = Whitefish", fillcolor="#39e54d"] ;
6 -> 38 ;
39 [label="gini = 0.0\nsamples = 2\nvalue = [0, 0, 0, 2, 0, 0, 0]\nclass = Parkki", fillcolor="#39e5e2"] ;
5 -> 39 ;
40 [label="Width <= 4.241\ngini = 0.764\nsamples = 24\nvalue = [3, 7, 7, 0, 2, 0, 5]\nclass = Roach", fillcolor="#ffffff"] ;
4 -> 40 ;
41 [label="Height <= 11.444\ngini = 0.219\nsamples = 8\nvalue = [1, 7, 0, 0, 0, 0, 0]\nclass = Roach", fillcolor="#c1e955"] ;
40 -> 41 ;
42 [label="gini = 0.0\nsamples = 7\nvalue = [0, 7, 0, 0, 0, 0, 0]\nclass = Roach", fillcolor="#b7e539"] ;
41 -> 42 ;
43 [label="gini = 0.0\nsamples = 1\nvalue = [1, 0, 0, 0, 0, 0, 0]\nclass = Bream", fillcolor="#e58139"] ;
41 -> 43 ;
44 [label="Length2 <= 32.25\ngini = 0.68\nsamples = 16\nvalue = [2, 0, 7, 0, 2, 0, 5]\nclass = Whitefish", fillcolor="#dbfadf"] ;
40 -> 44 ;
45 [label="Height <= 11.594\ngini = 0.691\nsamples = 9\nvalue = [2, 0, 1, 0, 2, 0, 4]\nclass = Smelt", fillcolor="#f8c6dc"] ;
44 -> 45 ;
46 [label="Width <= 4.728\ngini = 0.571\nsamples = 7\nvalue = [0, 0, 1, 0, 2, 0, 4]\nclass = Smelt", fillcolor="#f5b0cf"] ;
45 -> 46 ;
47 [label="gini = 0.0\nsamples = 3\nvalue = [0, 0, 0, 0, 0, 0, 3]\nclass = Smelt", fillcolor="#e53986"] ;
46 -> 47 ;
48 [label="Weight <= 465.0\ngini = 0.625\nsamples = 4\nvalue = [0, 0, 1, 0, 2, 0, 1]\nclass = Perch", fillcolor="#bdc7f6"] ;
46 -> 48 ;
49 [label="Length3 <= 29.65\ngini = 0.444\nsamples = 3\nvalue = [0, 0, 1, 0, 2, 0, 0]\nclass = Perch", fillcolor="#9caaf2"] ;
48 -> 49 ;
50 [label="gini = 0.0\nsamples = 1\nvalue = [0, 0, 1, 0, 0, 0, 0]\nclass = Whitefish", fillcolor="#39e54d"] ;
49 -> 50 ;
51 [label="gini = 0.0\nsamples = 2\nvalue = [0, 0, 0, 0, 2, 0, 0]\nclass = Perch", fillcolor="#3956e5"] ;
49 -> 51 ;
52 [label="gini = 0.0\nsamples = 1\nvalue = [0, 0, 0, 0, 0, 0, 1]\nclass = Smelt", fillcolor="#e53986"] ;
48 -> 52 ;
53 [label="gini = 0.0\nsamples = 2\nvalue = [2, 0, 0, 0, 0, 0, 0]\nclass = Bream", fillcolor="#e58139"] ;
45 -> 53 ;
54 [label="Weight <= 750.0\ngini = 0.245\nsamples = 7\nvalue = [0, 0, 6, 0, 0, 0, 1]\nclass = Whitefish", fillcolor="#5ae96b"] ;
44 -> 54 ;
55 [label="gini = 0.0\nsamples = 6\nvalue = [0, 0, 6, 0, 0, 0, 0]\nclass = Whitefish", fillcolor="#39e54d"] ;
54 -> 55 ;
56 [label="gini = 0.0\nsamples = 1\nvalue = [0, 0, 0, 0, 0, 0, 1]\nclass = Smelt", fillcolor="#e53986"] ;
54 -> 56 ;
57 [label="Height <= 10.974\ngini = 0.515\nsamples = 20\nvalue = [0, 0, 7, 12, 0, 0, 1]\nclass = Parkki", fillcolor="#b3f5f4"] ;
3 -> 57 ;
58 [label="gini = 0.0\nsamples = 12\nvalue = [0, 0, 0, 12, 0, 0, 0]\nclass = Parkki", fillcolor="#39e5e2"] ;
57 -> 58 ;
59 [label="Width <= 6.816\ngini = 0.219\nsamples = 8\nvalue = [0, 0, 7, 0, 0, 0, 1]\nclass = Whitefish", fillcolor="#55e966"] ;
57 -> 59 ;
60 [label="Length3 <= 42.45\ngini = 0.5\nsamples = 2\nvalue = [0, 0, 1, 0, 0, 0, 1]\nclass = Whitefish", fillcolor="#ffffff"] ;
59 -> 60 ;
61 [label="gini = 0.0\nsamples = 1\nvalue = [0, 0, 1, 0, 0, 0, 0]\nclass = Whitefish", fillcolor="#39e54d"] ;
60 -> 61 ;
62 [label="gini = 0.0\nsamples = 1\nvalue = [0, 0, 0, 0, 0, 0, 1]\nclass = Smelt", fillcolor="#e53986"] ;
60 -> 62 ;
63 [label="gini = 0.0\nsamples = 6\nvalue = [0, 0, 6, 0, 0, 0, 0]\nclass = Whitefish", fillcolor="#39e54d"] ;
59 -> 63 ;
64 [label="Weight <= 1050.0\ngini = 0.074\nsamples = 26\nvalue = [25, 0, 1, 0, 0, 0, 0]\nclass = Bream", fillcolor="#e68641"] ;
0 -> 64 [labeldistance=2.5, labelangle=-45, headlabel="False"] ;
65 [label="gini = 0.0\nsamples = 25\nvalue = [25, 0, 0, 0, 0, 0, 0]\nclass = Bream", fillcolor="#e58139"] ;
64 -> 65 ;
66 [label="gini = 0.0\nsamples = 1\nvalue = [0, 0, 1, 0, 0, 0, 0]\nclass = Whitefish", fillcolor="#39e54d"] ;
64 -> 66 ;
}